  ClogoRecognition.cpp
  qrc_Image_calorie_detection.cpp
ClogoRecognition.obj : error LNK2019: 无法解析的外部符号 cvCreateImage，该符号在函数 "public: bool __cdecl ClogoRecognition::svmTrain(void)" (?svmTrain@ClogoRecognition@@QEAA_NXZ) 中被引用
ClogoRecognition.obj : error LNK2019: 无法解析的外部符号 cvReleaseImage，该符号在函数 "public: bool __cdecl ClogoRecognition::svmTrain(void)" (?svmTrain@ClogoRecognition@@QEAA_NXZ) 中被引用
ClogoRecognition.obj : error LNK2019: 无法解析的外部符号 cvCreateMat，该符号在函数 "public: bool __cdecl ClogoRecognition::svmTrain(void)" (?svmTrain@ClogoRecognition@@QEAA_NXZ) 中被引用
ClogoRecognition.obj : error LNK2019: 无法解析的外部符号 cvReleaseMat，该符号在函数 "public: bool __cdecl ClogoRecognition::svmTrain(void)" (?svmTrain@ClogoRecognition@@QEAA_NXZ) 中被引用
ClogoRecognition.obj : error LNK2019: 无法解析的外部符号 cvSetZero，该符号在函数 "public: bool __cdecl ClogoRecognition::svmTrain(void)" (?svmTrain@ClogoRecognition@@QEAA_NXZ) 中被引用
ClogoRecognition.obj : error LNK2019: 无法解析的外部符号 "void __cdecl cv::fastFree(void *)" (?fastFree@cv@@YAXPEAX@Z)，该符号在函数 "public: __cdecl cv::Mat::~Mat(void)" (??1Mat@cv@@QEAA@XZ) 中被引用
ClogoRecognition.obj : error LNK2019: 无法解析的外部符号 "public: __cdecl cv::Mat::Mat(struct _IplImage const *,bool)" (??0Mat@cv@@QEAA@PEBU_IplImage@@_N@Z)，该符号在函数 "public: bool __cdecl ClogoRecognition::svmTrain(void)" (?svmTrain@ClogoRecognition@@QEAA_NXZ) 中被引用
ClogoRecognition.obj : error LNK2019: 无法解析的外部符号 "public: void __cdecl cv::Mat::deallocate(void)" (?deallocate@Mat@cv@@QEAAXXZ)，该符号在函数 "public: void __cdecl cv::Mat::release(void)" (?release@Mat@cv@@QEAAXXZ) 中被引用
ClogoRecognition.obj : error LNK2019: 无法解析的外部符号 "int __cdecl cv::_interlockedExchangeAdd(int *,int)" (?_interlockedExchangeAdd@cv@@YAHPEAHH@Z)，该符号在函数 "public: void __cdecl cv::Mat::release(void)" (?release@Mat@cv@@QEAAXXZ) 中被引用
ClogoRecognition.obj : error LNK2019: 无法解析的外部符号 cvResize，该符号在函数 "public: bool __cdecl ClogoRecognition::svmTrain(void)" (?svmTrain@ClogoRecognition@@QEAA_NXZ) 中被引用
ClogoRecognition.obj : error LNK2001: 无法解析的外部符号 "public: virtual void __cdecl cv::HOGDescriptor::setSVMDetector(class cv::_InputArray const &)" (?setSVMDetector@HOGDescriptor@cv@@UEAAXAEBV_InputArray@2@@Z)
ClogoRecognition.obj : error LNK2001: 无法解析的外部符号 "public: virtual bool __cdecl cv::HOGDescriptor::read(class cv::FileNode &)" (?read@HOGDescriptor@cv@@UEAA_NAEAVFileNode@2@@Z)
ClogoRecognition.obj : error LNK2001: 无法解析的外部符号 "public: virtual void __cdecl cv::HOGDescriptor::write(class cv::FileStorage &,class std::basic_string<char,struct std::char_traits<char>,class std::allocator<char> > const &)const " (?write@HOGDescriptor@cv@@UEBAXAEAVFileStorage@2@AEBV?$basic_string@DU?$char_traits@D@std@@V?$allocator@D@2@@std@@@Z)
ClogoRecognition.obj : error LNK2001: 无法解析的外部符号 "public: virtual bool __cdecl cv::HOGDescriptor::load(class std::basic_string<char,struct std::char_traits<char>,class std::allocator<char> > const &,class std::basic_string<char,struct std::char_traits<char>,class std::allocator<char> > const &)" (?load@HOGDescriptor@cv@@UEAA_NAEBV?$basic_string@DU?$char_traits@D@std@@V?$allocator@D@2@@std@@0@Z)
ClogoRecognition.obj : error LNK2001: 无法解析的外部符号 "public: virtual void __cdecl cv::HOGDescriptor::save(class std::basic_string<char,struct std::char_traits<char>,class std::allocator<char> > const &,class std::basic_string<char,struct std::char_traits<char>,class std::allocator<char> > const &)const " (?save@HOGDescriptor@cv@@UEBAXAEBV?$basic_string@DU?$char_traits@D@std@@V?$allocator@D@2@@std@@0@Z)
ClogoRecognition.obj : error LNK2001: 无法解析的外部符号 "public: virtual void __cdecl cv::HOGDescriptor::copyTo(struct cv::HOGDescriptor &)const " (?copyTo@HOGDescriptor@cv@@UEBAXAEAU12@@Z)
ClogoRecognition.obj : error LNK2001: 无法解析的外部符号 "public: virtual void __cdecl cv::HOGDescriptor::compute(class cv::Mat const &,class std::vector<float,class std::allocator<float> > &,class cv::Size_<int>,class cv::Size_<int>,class std::vector<class cv::Point_<int>,class std::allocator<class cv::Point_<int> > > const &)const " (?compute@HOGDescriptor@cv@@UEBAXAEBVMat@2@AEAV?$vector@MV?$allocator@M@std@@@std@@V?$Size_@H@2@2AEBV?$vector@V?$Point_@H@cv@@V?$allocator@V?$Point_@H@cv@@@std@@@5@@Z)
ClogoRecognition.obj : error LNK2001: 无法解析的外部符号 "public: virtual void __cdecl cv::HOGDescriptor::detect(class cv::Mat const &,class std::vector<class cv::Point_<int>,class std::allocator<class cv::Point_<int> > > &,class std::vector<double,class std::allocator<double> > &,double,class cv::Size_<int>,class cv::Size_<int>,class std::vector<class cv::Point_<int>,class std::allocator<class cv::Point_<int> > > const &)const " (?detect@HOGDescriptor@cv@@UEBAXAEBVMat@2@AEAV?$vector@V?$Point_@H@cv@@V?$allocator@V?$Point_@H@cv@@@std@@@std@@AEAV?$vector@NV?$allocator@N@std@@@5@NV?$Size_@H@2@3AEBV45@@Z)
ClogoRecognition.obj : error LNK2001: 无法解析的外部符号 "public: virtual void __cdecl cv::HOGDescriptor::detect(class cv::Mat const &,class std::vector<class cv::Point_<int>,class std::allocator<class cv::Point_<int> > > &,double,class cv::Size_<int>,class cv::Size_<int>,class std::vector<class cv::Point_<int>,class std::allocator<class cv::Point_<int> > > const &)const " (?detect@HOGDescriptor@cv@@UEBAXAEBVMat@2@AEAV?$vector@V?$Point_@H@cv@@V?$allocator@V?$Point_@H@cv@@@std@@@std@@NV?$Size_@H@2@2AEBV45@@Z)
ClogoRecognition.obj : error LNK2001: 无法解析的外部符号 "public: virtual void __cdecl cv::HOGDescriptor::detectMultiScale(class cv::Mat const &,class std::vector<class cv::Rect_<int>,class std::allocator<class cv::Rect_<int> > > &,class std::vector<double,class std::allocator<double> > &,double,class cv::Size_<int>,class cv::Size_<int>,double,double,bool)const " (?detectMultiScale@HOGDescriptor@cv@@UEBAXAEBVMat@2@AEAV?$vector@V?$Rect_@H@cv@@V?$allocator@V?$Rect_@H@cv@@@std@@@std@@AEAV?$vector@NV?$allocator@N@std@@@5@NV?$Size_@H@2@3NN_N@Z)
ClogoRecognition.obj : error LNK2001: 无法解析的外部符号 "public: virtual void __cdecl cv::HOGDescriptor::detectMultiScale(class cv::Mat const &,class std::vector<class cv::Rect_<int>,class std::allocator<class cv::Rect_<int> > > &,double,class cv::Size_<int>,class cv::Size_<int>,double,double,bool)const " (?detectMultiScale@HOGDescriptor@cv@@UEBAXAEBVMat@2@AEAV?$vector@V?$Rect_@H@cv@@V?$allocator@V?$Rect_@H@cv@@@std@@@std@@NV?$Size_@H@2@2NN_N@Z)
ClogoRecognition.obj : error LNK2001: 无法解析的外部符号 "public: virtual void __cdecl cv::HOGDescriptor::computeGradient(class cv::Mat const &,class cv::Mat &,class cv::Mat &,class cv::Size_<int>,class cv::Size_<int>)const " (?computeGradient@HOGDescriptor@cv@@UEBAXAEBVMat@2@AEAV32@1V?$Size_@H@2@2@Z)
ClogoRecognition.obj : error LNK2019: 无法解析的外部符号 cvLoadImage，该符号在函数 "public: bool __cdecl ClogoRecognition::svmTrain(void)" (?svmTrain@ClogoRecognition@@QEAA_NXZ) 中被引用
ClogoRecognition.obj : error LNK2019: 无法解析的外部符号 "public: virtual void __cdecl CvStatModel::save(char const *,char const *)const " (?save@CvStatModel@@UEBAXPEBD0@Z)，该符号在函数 "public: bool __cdecl ClogoRecognition::svmTrain(void)" (?svmTrain@ClogoRecognition@@QEAA_NXZ) 中被引用
ClogoRecognition.obj : error LNK2019: 无法解析的外部符号 "public: virtual void __cdecl CvStatModel::load(char const *,char const *)" (?load@CvStatModel@@UEAAXPEBD0@Z)，该符号在函数 "public: bool __cdecl ClogoRecognition::svmTest(void)" (?svmTest@ClogoRecognition@@QEAA_NXZ) 中被引用
ClogoRecognition.obj : error LNK2019: 无法解析的外部符号 "public: __cdecl CvSVMParams::CvSVMParams(void)" (??0CvSVMParams@@QEAA@XZ)，该符号在函数 "public: bool __cdecl ClogoRecognition::svmTrain(void)" (?svmTrain@ClogoRecognition@@QEAA_NXZ) 中被引用
ClogoRecognition.obj : error LNK2019: 无法解析的外部符号 "public: __cdecl CvSVMParams::CvSVMParams(int,int,double,double,double,double,double,double,struct CvMat *,struct CvTermCriteria)" (??0CvSVMParams@@QEAA@HHNNNNNNPEAUCvMat@@UCvTermCriteria@@@Z)，该符号在函数 "public: bool __cdecl ClogoRecognition::svmTrain(void)" (?svmTrain@ClogoRecognition@@QEAA_NXZ) 中被引用
ClogoRecognition.obj : error LNK2019: 无法解析的外部符号 "public: __cdecl CvSVM::CvSVM(void)" (??0CvSVM@@QEAA@XZ)，该符号在函数 "public: bool __cdecl ClogoRecognition::svmTrain(void)" (?svmTrain@ClogoRecognition@@QEAA_NXZ) 中被引用
ClogoRecognition.obj : error LNK2019: 无法解析的外部符号 "public: virtual __cdecl CvSVM::~CvSVM(void)" (??1CvSVM@@UEAA@XZ)，该符号在函数 "public: bool __cdecl ClogoRecognition::svmTrain(void)" (?svmTrain@ClogoRecognition@@QEAA_NXZ) 中被引用
ClogoRecognition.obj : error LNK2019: 无法解析的外部符号 "public: virtual bool __cdecl CvSVM::train(struct CvMat const *,struct CvMat const *,struct CvMat const *,struct CvMat const *,struct CvSVMParams)" (?train@CvSVM@@UEAA_NPEBUCvMat@@000UCvSVMParams@@@Z)，该符号在函数 "public: bool __cdecl ClogoRecognition::svmTrain(void)" (?svmTrain@ClogoRecognition@@QEAA_NXZ) 中被引用
ClogoRecognition.obj : error LNK2019: 无法解析的外部符号 "public: virtual float __cdecl CvSVM::predict(struct CvMat const *,bool)const " (?predict@CvSVM@@UEBAMPEBUCvMat@@_N@Z)，该符号在函数 "public: bool __cdecl ClogoRecognition::svmTest(void)" (?svmTest@ClogoRecognition@@QEAA_NXZ) 中被引用
c:\users\julie\documents\visual studio 2015\Projects\Image_calorie_detection\x64\Debug\\Image_calorie_detection.exe : fatal error LNK1120: 31 个无法解析的外部命令
